<?xml version="1.0"?>
<opencv_storage>
<cascade>
  <stageType>BOOST</stageType>
  <featureType>HAAR</featureType>
  <height>20</height>
  <width>20</width>
  <stageParams>
    <boostType>GAB</boostType>
    <minHitRate>9.9900001287460327e-01</minHitRate>
    <maxFalseAlarm>5.0000000745058060e-02</maxFalseAlarm>
    <weightTrimRate>9.4999999999999996e-01</weightTrimRate>
    <maxDepth>1</maxDepth>
    <maxWeakCount>100</maxWeakCount></stageParams>
  <featureParams>
    <maxCatCount>0</maxCatCount>
    <featSize>1</featSize>
    <mode>ALL</mode></featureParams>
  <stageNum>3</stageNum>
  <stages>
    <!-- stage 0 -->
    <_>
      <maxWeakCount>8</maxWeakCount>
      <stageThreshold>-3.0032834410667419e-01</stageThreshold>
      <weakClassifiers>
        <_>
          <internalNodes>
            0 -1 12 -2.2483263164758682e-03</internalNodes>
          <leafValues>
            8.4982937574386597e-01 -6.6636931896209717e-01</leafValues></_>
        <_>
          <internalNodes>
            0 -1 16 1.0896770283579826e-02</internalNodes>
          <leafValues>
            -9.1529780626296997e-01 6.3732349872589111e-01</leafValues></_>
        <_>
          <internalNodes>
            0 -1 7 4.6070343814790249e-03</internalNodes>
          <leafValues>
            -6.2130087614059448e-01 8.3872252702713013e-01</leafValues></_>
        <_>
          <internalNodes>
            0 -1 2 -1.1951116845011711e-02</internalNodes>
          <leafValues>
            5.0284099578857422e-01 -9.8660224676132202e-01</leafValues></_>
        <_>
          <internalNodes>
            0 -1 8 -1.1752521619200706e-02</internalNodes>
          <leafValues>
            5.1550942659378052e-01 -7.7757096290588379e-01</leafValues></_>
        <_>
          <internalNodes>
            0 -1 0 5.7258501648902893e-02</internalNodes>
          <leafValues>
            -9.2730486392974854e-01 4.6757632493972778e-01</leafValues></_>
        <_>
          <internalNodes>
            0 -1 3 -2.2642925381660461e-02</internalNodes>
          <leafValues>
            9.2368090152740479e-01 -5.0106853246688843e-01</leafValues></_>
        <_>
          <internalNodes>
            0 -1 5 -7.7436170540750027e-03</internalNodes>
          <leafValues>
            9.9644380807876587e-01 -5.4224199056625366e-01</leafValues></_></weakClassifiers></_>
    <!-- stage 1 -->
    <_>
      <maxWeakCount>7</maxWeakCount>
      <stageThreshold>-1.5746298432350159e-01</stageThreshold>
      <weakClassifiers>
        <_>
          <internalNodes>
            0 -1 9 4.9125095829367638e-03</internalNodes>
          <leafValues>
            -5.2969503402709961e-01 8.7533158063888550e-01</leafValues></_>
        <_>
          <internalNodes>
            0 -1 4 -4.9393363296985626e-03</internalNodes>
          <leafValues>
            9.5459491014480591e-01 -4.3573170900344849e-01</leafValues></_>
        <_>
          <internalNodes>
            0 -1 1 -6.7082466557621956e-03</internalNodes>
          <leafValues>
            -9.7700029611587524e-01 5.0853163003921509e-01</leafValues></_>
        <_>
          <internalNodes>
            0 -1 13 -2.4813087657094002e-02</internalNodes>
          <leafValues>
            9.2815005779266357e-01 -5.3934061527252197e-01</leafValues></_>
        <_>
          <internalNodes>
            0 -1 10 1.2747054919600487e-02</internalNodes>
          <leafValues>
            -4.0918162465095520e-01 9.7379088401794434e-01</leafValues></_>
        <_>
          <internalNodes>
            0 -1 19 3.6074492527404800e-05</internalNodes>
          <leafValues>
            5.1714092493057251e-01 -9.8124945163726807e-01</leafValues></_>
        <_>
          <internalNodes>
            0 -1 11 4.9024261534214020e-03</internalNodes>
          <leafValues>
            -5.5695378780364990e-01 8.5501635074615479e-01</leafValues></_></weakClassifiers></_>
    <!-- stage 2 -->
    <_>
      <maxWeakCount>7</maxWeakCount>
      <stageThreshold>2.0067030191421509e-01</stageThreshold>
      <weakClassifiers>
        <_>
          <internalNodes>
            0 -1 18 -2.1926418412476778e-05</internalNodes>
          <leafValues>
            -1. 4.5878919959068298e-01</leafValues></_>
        <_>
          <internalNodes>
            0 -1 17 -5.7576680555939674e-03</internalNodes>
          <leafValues>
            8.1834757328033447e-01 -5.7930427789688110e-01</leafValues></_>
        <_>
          <internalNodes>
            0 -1 6 -2.8093870729207993e-02</internalNodes>
          <leafValues>
            -9.6676033735275269e-01 3.7799426913261414e-01</leafValues></_>
        <_>
          <internalNodes>
            0 -1 14 -6.4033875241875648e-03</internalNodes>
          <leafValues>
            9.5777982473373413e-01 -4.0798798203468323e-01</leafValues></_>
        <_>
          <internalNodes>
            0 -1 15 -2.5936093181371689e-02</internalNodes>
          <leafValues>
            9.1025865077972412e-01 -5.1062059402465820e-01</leafValues></_>
        <_>
          <internalNodes>
            0 -1 20 -3.5727600334212184e-05</internalNodes>
          <leafValues>
            -1. 4.4433477520942688e-01</leafValues></_>
        <_>
          <internalNodes>
            0 -1 20 2.9115362849552184e-05</internalNodes>
          <leafValues>
            4.1746491193771362e-01 -1.</leafValues></_></weakClassifiers></_></stages>
  <features>
    <_>
      <rects>
        <_>
          0 0 20 20 -1.</_>
        <_>
          5 0 10 20 2.</_></rects>
      <tilted>0</tilted></_>
    <_>
      <rects>
        <_>
          0 0 20 16 -1.</_>
        <_>
          0 8 20 8 2.</_></rects>
      <tilted>0</tilted></_>
    <_>
      <rects>
        <_>
          1 14 19 6 -1.</_>
        <_>
          1 17 19 3 2.</_></rects>
      <tilted>0</tilted></_>
    <_>
      <rects>
        <_>
          2 8 12 2 -1.</_>
        <_>
          2 8 6 1 2.</_>
        <_>
          8 9 6 1 2.</_></rects>
      <tilted>0</tilted></_>
    <_>
      <rects>
        <_>
          6 6 2 2 -1.</_>
        <_>
          6 6 1 1 2.</_>
        <_>
          7 7 1 1 2.</_></rects>
      <tilted>0</tilted></_>
    <_>
      <rects>
        <_>
          6 8 1 3 -1.</_>
        <_>
          6 9 1 1 3.</_></rects>
      <tilted>0</tilted></_>
    <_>
      <rects>
        <_>
          7 2 10 6 -1.</_>
        <_>
          7 2 5 6 2.</_></rects>
      <tilted>1</tilted></_>
    <_>
      <rects>
        <_>
          7 6 3 1 -1.</_>
        <_>
          8 6 1 1 3.</_></rects>
      <tilted>0</tilted></_>
    <_>
      <rects>
        <_>
          7 9 6 3 -1.</_>
        <_>
          9 10 2 1 9.</_></rects>
      <tilted>0</tilted></_>
    <_>
      <rects>
        <_>
          7 14 3 1 -1.</_>
        <_>
          8 14 1 1 3.</_></rects>
      <tilted>0</tilted></_>
    <_>
      <rects>
        <_>
          8 12 3 2 -1.</_>
        <_>
          9 12 1 2 3.</_></rects>
      <tilted>0</tilted></_>
    <_>
      <rects>
        <_>
          10 6 3 1 -1.</_>
        <_>
          11 6 1 1 3.</_></rects>
      <tilted>0</tilted></_>
    <_>
      <rects>
        <_>
          10 8 1 2 -1.</_>
        <_>
          10 9 1 1 2.</_></rects>
      <tilted>0</tilted></_>
    <_>
      <rects>
        <_>
          10 11 3 3 -1.</_>
        <_>
          11 12 1 1 9.</_></rects>
      <tilted>0</tilted></_>
    <_>
      <rects>
        <_>
          11 11 2 2 -1.</_>
        <_>
          11 11 1 1 2.</_>
        <_>
          12 12 1 1 2.</_></rects>
      <tilted>0</tilted></_>
    <_>
      <rects>
        <_>
          12 10 3 3 -1.</_>
        <_>
          13 11 1 1 9.</_></rects>
      <tilted>0</tilted></_>
    <_>
      <rects>
        <_>
          13 0 7 6 -1.</_>
        <_>
          13 3 7 3 2.</_></rects>
      <tilted>0</tilted></_>
    <_>
      <rects>
        <_>
          14 7 1 3 -1.</_>
        <_>
          14 8 1 1 3.</_></rects>
      <tilted>0</tilted></_>
    <_>
      <rects>
        <_>
          18 0 2 1 -1.</_>
        <_>
          19 0 1 1 2.</_></rects>
      <tilted>0</tilted></_>
    <_>
      <rects>
        <_>
          18 0 2 3 -1.</_>
        <_>
          19 0 1 3 2.</_></rects>
      <tilted>0</tilted></_>
    <_>
      <rects>
        <_>
          19 0 1 2 -1.</_>
        <_>
          19 1 1 1 2.</_></rects>
      <tilted>0</tilted></_></features></cascade>
</opencv_storage>
